<?xml version="1.0"?>
<opencv_storage>
<cascade>
  <stageType>BOOST</stageType>
  <featureType>HAAR</featureType>
  <height>32</height>
  <width>32</width>
  <stageParams>
    <boostType>GAB</boostType>
    <minHitRate>9.9500000476837158e-01</minHitRate>
    <maxFalseAlarm>5.0000000000000000e-01</maxFalseAlarm>
    <weightTrimRate>9.4999998807907104e-01</weightTrimRate>
    <maxDepth>1</maxDepth>
    <maxWeakCount>100</maxWeakCount></stageParams>
  <featureParams>
    <maxCatCount>0</maxCatCount>
    <featSize>1</featSize>
    <mode>BASIC</mode></featureParams>
  <stageNum>19</stageNum>
  <stages>
    <!-- stage 0 -->
    <_>
      <maxWeakCount>3</maxWeakCount>
      <stageThreshold>-1.1462730169296265e+00</stageThreshold>
      <weakClassifiers>
        <_>
          <internalNodes>
            0 -1 42 3.1821306794881821e-02</internalNodes>
          <leafValues>
            -9.2277228832244873e-01 5.4687500000000000e-01</leafValues></_>
        <_>
          <internalNodes>
            0 -1 47 -5.0591163337230682e-02</internalNodes>
          <leafValues>
            5.9394848346710205e-01 -7.6547342538833618e-01</leafValues></_>
        <_>
          <internalNodes>
            0 -1 45 3.4121163189411163e-02</internalNodes>
          <leafValues>
            -6.3047909736633301e-01 5.4197269678115845e-01</leafValues></_></weakClassifiers></_>
    <!-- stage 1 -->
    <_>
      <maxWeakCount>4</maxWeakCount>
      <stageThreshold>-1.5031342506408691e+00</stageThreshold>
      <weakClassifiers>
        <_>
          <internalNodes>
            0 -1 2 -8.0127246677875519e-02</internalNodes>
          <leafValues>
            7.5000000000000000e-01 -8.3548980951309204e-01</leafValues></_>
        <_>
          <internalNodes>
            0 -1 116 -2.7130078524351120e-02</internalNodes>
          <leafValues>
            6.7705714702606201e-01 -6.4230543375015259e-01</leafValues></_>
        <_>
          <internalNodes>
            0 -1 87 -1.8793714698404074e-03</internalNodes>
          <leafValues>
            4.5614445209503174e-01 -6.1444252729415894e-01</leafValues></_>
        <_>
          <internalNodes>
            0 -1 3 -6.9091543555259705e-03</internalNodes>
          <leafValues>
            6.0398453474044800e-01 -4.8148339986801147e-01</leafValues></_></weakClassifiers></_>
    <!-- stage 2 -->
    <_>
      <maxWeakCount>6</maxWeakCount>
      <stageThreshold>-1.7457606792449951e+00</stageThreshold>
      <weakClassifiers>
        <_>
          <internalNodes>
            0 -1 25 -4.0047258138656616e-02</internalNodes>
          <leafValues>
            5.3125000000000000e-01 -8.3426445722579956e-01</leafValues></_>
        <_>
          <internalNodes>
            0 -1 6 1.7064449191093445e-01</internalNodes>
          <leafValues>
            -5.6542742252349854e-01 6.2182003259658813e-01</leafValues></_>
        <_>
          <internalNodes>
            0 -1 0 -8.8138952851295471e-02</internalNodes>
          <leafValues>
            7.8933262825012207e-01 -4.1802871227264404e-01</leafValues></_>
        <_>
          <internalNodes>
            0 -1 124 -7.9387042205780745e-05</internalNodes>
          <leafValues>
            -7.8120106458663940e-01 2.9786553978919983e-01</leafValues></_>
        <_>
          <internalNodes>
            0 -1 27 8.0672010779380798e-02</internalNodes>
          <leafValues>
            -4.5231169462203979e-01 4.8050680756568909e-01</leafValues></_>
        <_>
          <internalNodes>
            0 -1 124 9.8354823421686888e-05</internalNodes>
          <leafValues>
            3.2467553019523621e-01 -7.0641243457794189e-01</leafValues></_></weakClassifiers></_>
    <!-- stage 3 -->
    <_>
      <maxWeakCount>6</maxWeakCount>
      <stageThreshold>-1.8097522258758545e+00</stageThreshold>
      <weakClassifiers>
        <_>
          <internalNodes>
            0 -1 65 -2.0535118877887726e-02</internalNodes>
          <leafValues>
            3.4482758492231369e-02 -9.0041494369506836e-01</leafValues></_>
        <_>
          <internalNodes>
            0 -1 36 -7.2821214795112610e-02</internalNodes>
          <leafValues>
            5.8312880992889404e-01 -5.5692315101623535e-01</leafValues></_>
        <_>
          <internalNodes>
            0 -1 62 5.6132074445486069e-02</internalNodes>
          <leafValues>
            -4.0543493628501892e-01 6.5394705533981323e-01</leafValues></_>
        <_>
          <internalNodes>
            0 -1 34 -3.8847506046295166e-02</internalNodes>
          <leafValues>
            5.3679287433624268e-01 -4.0171951055526733e-01</leafValues></_>
        <_>
          <internalNodes>
            0 -1 91 -4.5458829845301807e-04</internalNodes>
          <leafValues>
            -9.8552745580673218e-01 2.1549686789512634e-01</leafValues></_>
        <_>
          <internalNodes>
            0 -1 9 2.0415778271853924e-04</internalNodes>
          <leafValues>
            2.3924341797828674e-01 -8.3158004283905029e-01</leafValues></_></weakClassifiers></_>
    <!-- stage 4 -->
    <_>
      <maxWeakCount>6</maxWeakCount>
      <stageThreshold>-1.7152831554412842e+00</stageThreshold>
      <weakClassifiers>
        <_>
          <internalNodes>
            0 -1 19 -2.4478573352098465e-02</internalNodes>
          <leafValues>
            6.1111110448837280e-01 -9.0097087621688843e-01</leafValues></_>
        <_>
          <internalNodes>
            0 -1 61 -3.2661579549312592e-02</internalNodes>
          <leafValues>
            7.0208644866943359e-01 -6.6529381275177002e-01</leafValues></_>
        <_>
          <internalNodes>
            0 -1 29 1.9963473081588745e-01</internalNodes>
          <leafValues>
            -4.1160601377487183e-01 6.7914253473281860e-01</leafValues></_>
        <_>
          <internalNodes>
            0 -1 37 -5.4526083171367645e-02</internalNodes>
          <leafValues>
            6.7798370122909546e-01 -3.7493240833282471e-01</leafValues></_>
        <_>
          <internalNodes>
            0 -1 60 -1.7165347526315600e-04</internalNodes>
          <leafValues>
            3.7826830148696899e-01 -6.6034793853759766e-01</leafValues></_>
        <_>
          <internalNodes>
            0 -1 123 -6.1286569689400494e-05</internalNodes>
          <leafValues>
            -7.9366445541381836e-01 2.8262773156166077e-01</leafValues></_></weakClassifiers></_>
    <!-- stage 5 -->
    <_>
      <maxWeakCount>5</maxWeakCount>
      <stageThreshold>-1.6792576313018799e+00</stageThreshold>
      <weakClassifiers>
        <_>
          <internalNodes>
            0 -1 23 -3.1100181862711906e-02</internalNodes>
          <leafValues>
            4.1860464215278625e-01 -8.5361218452453613e-01</leafValues></_>
        <_>
          <internalNodes>
            0 -1 64 -2.0044853910803795e-02</internalNodes>
          <leafValues>
            5.0144279003143311e-01 -6.5754580497741699e-01</leafValues></_>
        <_>
          <internalNodes>
            0 -1 50 1.1018902063369751e-02</internalNodes>
          <leafValues>
            -4.1781261563301086e-01 5.0968921184539795e-01</leafValues></_>
        <_>
          <internalNodes>
            0 -1 15 -2.3895803838968277e-02</internalNodes>
          <leafValues>
            5.3273808956146240e-01 -3.8987031579017639e-01</leafValues></_>
        <_>
          <internalNodes>
            0 -1 119 3.5301519092172384e-03</internalNodes>
          <leafValues>
            -2.8302520513534546e-01 7.1518790721893311e-01</leafValues></_></weakClassifiers></_>
    <!-- stage 6 -->
    <_>
      <maxWeakCount>7</maxWeakCount>
      <stageThreshold>-1.6010040044784546e+00</stageThreshold>
      <weakClassifiers>
        <_>
          <internalNodes>
            0 -1 100 -3.9228081703186035e-02</internalNodes>
          <leafValues>
            3.2258063554763794e-02 -8.2775121927261353e-01</leafValues></_>
        <_>
          <internalNodes>
            0 -1 109 3.3626707736402750e-03</internalNodes>
          <leafValues>
            -6.1270195245742798e-01 2.3544779419898987e-01</leafValues></_>
        <_>
          <internalNodes>
            0 -1 48 3.7675702478736639e-03</internalNodes>
          <leafValues>
            -5.1420515775680542e-01 3.4114056825637817e-01</leafValues></_>
        <_>
          <internalNodes>
            0 -1 113 5.8241426013410091e-03</internalNodes>
          <leafValues>
            -4.2657047510147095e-01 4.0856856107711792e-01</leafValues></_>
        <_>
          <internalNodes>
            0 -1 85 -4.1195208905264735e-04</internalNodes>
          <leafValues>
            2.3443640768527985e-01 -7.5696462392807007e-01</leafValues></_>
        <_>
          <internalNodes>
            0 -1 14 2.8091216459870338e-02</internalNodes>
          <leafValues>
            -3.5449668765068054e-01 5.1664221286773682e-01</leafValues></_>
        <_>
          <internalNodes>
            0 -1 72 -5.7542719878256321e-03</internalNodes>
          <leafValues>
            -8.0321043729782104e-01 2.0140466094017029e-01</leafValues></_></weakClassifiers></_>
    <!-- stage 7 -->
    <_>
      <maxWeakCount>6</maxWeakCount>
      <stageThreshold>-1.3180326223373413e+00</stageThreshold>
      <weakClassifiers>
        <_>
          <internalNodes>
            0 -1 104 -6.0771055519580841e-02</internalNodes>
          <leafValues>
            3.3333334326744080e-01 -8.2787650823593140e-01</leafValues></_>
        <_>
          <internalNodes>
            0 -1 82 7.4521049857139587e-02</internalNodes>
          <leafValues>
            -5.7076001167297363e-01 4.9619805812835693e-01</leafValues></_>
        <_>
          <internalNodes>
            0 -1 28 3.7059508264064789e-02</internalNodes>
          <leafValues>
            -4.0044182538986206e-01 5.7731121778488159e-01</leafValues></_>
        <_>
          <internalNodes>
            0 -1 1 -8.6236954666674137e-04</internalNodes>
          <leafValues>
            -8.6566168069839478e-01 2.1605584025382996e-01</leafValues></_>
        <_>
          <internalNodes>
            0 -1 13 -3.3597640693187714e-02</internalNodes>
          <leafValues>
            6.2586724758148193e-01 -2.9405570030212402e-01</leafValues></_>
        <_>
          <internalNodes>
            0 -1 77 1.0696565732359886e-02</internalNodes>
          <leafValues>
            -3.4611794352531433e-01 5.7602190971374512e-01</leafValues></_></weakClassifiers></_>
    <!-- stage 8 -->
    <_>
      <maxWeakCount>7</maxWeakCount>
      <stageThreshold>-1.6689003705978394e+00</stageThreshold>
      <weakClassifiers>
        <_>
          <internalNodes>
            0 -1 115 -5.5632226169109344e-02</internalNodes>
          <leafValues>
            7.8651688992977142e-02 -8.2840800285339355e-01</leafValues></_>
        <_>
          <internalNodes>
            0 -1 51 5.6122705340385437e-02</internalNodes>
          <leafValues>
            -5.5640655755996704e-01 3.8062924146652222e-01</leafValues></_>
        <_>
          <internalNodes>
            0 -1 80 -8.7447371333837509e-03</internalNodes>
          <leafValues>
            4.3431505560874939e-01 -4.1608181595802307e-01</leafValues></_>
        <_>
          <internalNodes>
            0 -1 4 -5.9991981834173203e-04</internalNodes>
          <leafValues>
            -9.0178883075714111e-01 1.8841616809368134e-01</leafValues></_>
        <_>
          <internalNodes>
            0 -1 44 8.7933121249079704e-03</internalNodes>
          <leafValues>
            -5.3118646144866943e-01 2.8634253144264221e-01</leafValues></_>
        <_>
          <internalNodes>
            0 -1 127 1.0449362453073263e-03</internalNodes>
          <leafValues>
            2.6543956995010376e-01 -6.0727763175964355e-01</leafValues></_>
        <_>
          <internalNodes>
            0 -1 21 -4.7485058894380927e-04</internalNodes>
          <leafValues>
            2.6451489329338074e-01 -5.8195662498474121e-01</leafValues></_></weakClassifiers></_>
    <!-- stage 9 -->
    <_>
      <maxWeakCount>7</maxWeakCount>
      <stageThreshold>-1.6398458480834961e+00</stageThreshold>
      <weakClassifiers>
        <_>
          <internalNodes>
            0 -1 26 -3.1861562281847000e-02</internalNodes>
          <leafValues>
            4.2857143282890320e-01 -8.0291968584060669e-01</leafValues></_>
        <_>
          <internalNodes>
            0 -1 41 6.7151263356208801e-02</internalNodes>
          <leafValues>
            -6.2067049741744995e-01 1.5847723186016083e-01</leafValues></_>
        <_>
          <internalNodes>
            0 -1 5 -1.3937246985733509e-03</internalNodes>
          <leafValues>
            -7.2267913818359375e-01 1.7036715149879456e-01</leafValues></_>
        <_>
          <internalNodes>
            0 -1 73 -8.5128194768913090e-06</internalNodes>
          <leafValues>
            3.2046049833297729e-01 -4.3860778212547302e-01</leafValues></_>
        <_>
          <internalNodes>
            0 -1 63 7.7030108514009044e-06</internalNodes>
          <leafValues>
            -4.8565861582756042e-01 3.6352312564849854e-01</leafValues></_>
        <_>
          <internalNodes>
            0 -1 18 -9.9831284023821354e-04</internalNodes>
          <leafValues>
            -8.2567632198333740e-01 1.8751001358032227e-01</leafValues></_>
        <_>
          <internalNodes>
            0 -1 90 -4.2502447962760925e-02</internalNodes>
          <leafValues>
            6.7526352405548096e-01 -2.4493008852005005e-01</leafValues></_></weakClassifiers></_>
    <!-- stage 10 -->
    <_>
      <maxWeakCount>9</maxWeakCount>
      <stageThreshold>-1.7015305757522583e+00</stageThreshold>
      <weakClassifiers>
        <_>
          <internalNodes>
            0 -1 24 -3.4489009529352188e-02</internalNodes>
          <leafValues>
            -2.7380952239036560e-01 -8.4123712778091431e-01</leafValues></_>
        <_>
          <internalNodes>
            0 -1 57 -2.2692129015922546e-02</internalNodes>
          <leafValues>
            7.0311889052391052e-02 -6.6377526521682739e-01</leafValues></_>
        <_>
          <internalNodes>
            0 -1 105 -3.2345363870263100e-03</internalNodes>
          <leafValues>
            3.5243603587150574e-01 -3.5511565208435059e-01</leafValues></_>
        <_>
          <internalNodes>
            0 -1 93 1.2642747163772583e-01</internalNodes>
          <leafValues>
            -2.2941614687442780e-01 7.5481474399566650e-01</leafValues></_>
        <_>
          <internalNodes>
            0 -1 107 9.8620895296335220e-03</internalNodes>
          <leafValues>
            -5.4861640930175781e-01 2.7103045582771301e-01</leafValues></_>
        <_>
          <internalNodes>
            0 -1 110 -7.9625155776739120e-03</internalNodes>
          <leafValues>
            -7.5803089141845703e-01 2.3192229866981506e-01</leafValues></_>
        <_>
          <internalNodes>
            0 -1 101 1.3703665172215551e-04</internalNodes>
          <leafValues>
            -5.4268634319305420e-01 2.3215883970260620e-01</leafValues></_>
        <_>
          <internalNodes>
            0 -1 12 -3.9961130823940039e-04</internalNodes>
          <leafValues>
            -6.7368870973587036e-01 2.0338419079780579e-01</leafValues></_>
        <_>
          <internalNodes>
            0 -1 38 -1.2211108114570379e-03</internalNodes>
          <leafValues>
            3.3645820617675781e-01 -4.2530301213264465e-01</leafValues></_></weakClassifiers></_>
    <!-- stage 11 -->
    <_>
      <maxWeakCount>7</maxWeakCount>
      <stageThreshold>-1.2792657613754272e+00</stageThreshold>
      <weakClassifiers>
        <_>
          <internalNodes>
            0 -1 46 6.6229384392499924e-03</internalNodes>
          <leafValues>
            -8.2667964696884155e-01 -1.1711711436510086e-01</leafValues></_>
        <_>
          <internalNodes>
            0 -1 95 2.8394997934810817e-04</internalNodes>
          <leafValues>
            -6.9484245777130127e-01 1.3855816796422005e-02</leafValues></_>
        <_>
          <internalNodes>
            0 -1 88 -6.2795452322461642e-06</internalNodes>
          <leafValues>
            2.4596108496189117e-01 -5.5958694219589233e-01</leafValues></_>
        <_>
          <internalNodes>
            0 -1 43 -3.8032807409763336e-02</internalNodes>
          <leafValues>
            6.0366767644882202e-01 -2.6303309202194214e-01</leafValues></_>
        <_>
          <internalNodes>
            0 -1 97 1.9433927955105901e-03</internalNodes>
          <leafValues>
            2.1951226890087128e-01 -1.</leafValues></_>
        <_>
          <internalNodes>
            0 -1 55 5.6906633079051971e-02</internalNodes>
          <leafValues>
            -3.8270920515060425e-01 4.0396013855934143e-01</leafValues></_>
        <_>
          <internalNodes>
            0 -1 33 4.1695587337017059e-02</internalNodes>
          <leafValues>
            -2.6729428768157959e-01 5.5409777164459229e-01</leafValues></_></weakClassifiers></_>
    <!-- stage 12 -->
    <_>
      <maxWeakCount>7</maxWeakCount>
      <stageThreshold>-1.4005722999572754e+00</stageThreshold>
      <weakClassifiers>
        <_>
          <internalNodes>
            0 -1 120 -2.3623233661055565e-02</internalNodes>
          <leafValues>
            1.1111111193895340e-01 -8.0837208032608032e-01</leafValues></_>
        <_>
          <internalNodes>
            0 -1 118 6.6906382562592626e-04</internalNodes>
          <leafValues>
            -5.7174360752105713e-01 1.4696398377418518e-01</leafValues></_>
        <_>
          <internalNodes>
            0 -1 16 -3.0762735754251480e-02</internalNodes>
          <leafValues>
            4.8399075865745544e-01 -3.3354553580284119e-01</leafValues></_>
        <_>
          <internalNodes>
            0 -1 126 -1.3073292211629450e-04</internalNodes>
          <leafValues>
            -6.1437916755676270e-01 2.1606777608394623e-01</leafValues></_>
        <_>
          <internalNodes>
            0 -1 74 3.8648222107440233e-04</internalNodes>
          <leafValues>
            -4.5520329475402832e-01 3.2846701145172119e-01</leafValues></_>
        <_>
          <internalNodes>
            0 -1 11 -2.8662130236625671e-02</internalNodes>
          <leafValues>
            3.9322331547737122e-01 -3.5397279262542725e-01</leafValues></_>
        <_>
          <internalNodes>
            0 -1 129 5.5070873349905014e-04</internalNodes>
          <leafValues>
            2.0577774941921234e-01 -7.4578309059143066e-01</leafValues></_></weakClassifiers></_>
    <!-- stage 13 -->
    <_>
      <maxWeakCount>9</maxWeakCount>
      <stageThreshold>-1.8004370927810669e+00</stageThreshold>
      <weakClassifiers>
        <_>
          <internalNodes>
            0 -1 59 4.5754723250865936e-02</internalNodes>
          <leafValues>
            -8.7142854928970337e-01 -4.3624159693717957e-01</leafValues></_>
        <_>
          <internalNodes>
            0 -1 49 -2.7753820177167654e-03</internalNodes>
          <leafValues>
            8.1722483038902283e-02 -5.6531953811645508e-01</leafValues></_>
        <_>
          <internalNodes>
            0 -1 76 5.9572240570560098e-04</internalNodes>
          <leafValues>
            1.3979882001876831e-01 -8.0360406637191772e-01</leafValues></_>
        <_>
          <internalNodes>
            0 -1 32 -1.3066371902823448e-02</internalNodes>
          <leafValues>
            -8.7137073278427124e-01 1.5658034384250641e-01</leafValues></_>
        <_>
          <internalNodes>
            0 -1 22 -1.1738226749002934e-04</internalNodes>
          <leafValues>
            -6.1641299724578857e-01 1.6754281520843506e-01</leafValues></_>
        <_>
          <internalNodes>
            0 -1 81 -1.2732381583191454e-04</internalNodes>
          <leafValues>
            2.7053260803222656e-01 -4.5884424448013306e-01</leafValues></_>
        <_>
          <internalNodes>
            0 -1 79 2.0433204248547554e-02</internalNodes>
          <leafValues>
            -2.6973113417625427e-01 4.8109164834022522e-01</leafValues></_>
        <_>
          <internalNodes>
            0 -1 112 -6.2605813145637512e-02</internalNodes>
          <leafValues>
            5.6216627359390259e-01 -2.4110649526119232e-01</leafValues></_>
        <_>
          <internalNodes>
            0 -1 7 -3.4337333636358380e-04</internalNodes>
          <leafValues>
            -7.3131453990936279e-01 1.9664987921714783e-01</leafValues></_></weakClassifiers></_>
    <!-- stage 14 -->
    <_>
      <maxWeakCount>6</maxWeakCount>
      <stageThreshold>-1.8173050880432129e+00</stageThreshold>
      <weakClassifiers>
        <_>
          <internalNodes>
            0 -1 31 -1.6941938549280167e-02</internalNodes>
          <leafValues>
            -3.7037037312984467e-02 -8.1267738342285156e-01</leafValues></_>
        <_>
          <internalNodes>
            0 -1 67 1.6966075636446476e-03</internalNodes>
          <leafValues>
            -6.4601457118988037e-01 6.8635441362857819e-02</leafValues></_>
        <_>
          <internalNodes>
            0 -1 98 3.5018226481042802e-04</internalNodes>
          <leafValues>
            -5.0970834493637085e-01 2.6167988777160645e-01</leafValues></_>
        <_>
          <internalNodes>
            0 -1 128 -1.6553208697587252e-03</internalNodes>
          <leafValues>
            -5.6347554922103882e-01 2.4227370321750641e-01</leafValues></_>
        <_>
          <internalNodes>
            0 -1 117 1.1052277404814959e-03</internalNodes>
          <leafValues>
            -5.0123649835586548e-01 2.7695944905281067e-01</leafValues></_>
        <_>
          <internalNodes>
            0 -1 84 -9.4819697551429272e-04</internalNodes>
          <leafValues>
            3.6764761805534363e-01 -3.6133018136024475e-01</leafValues></_></weakClassifiers></_>
    <!-- stage 15 -->
    <_>
      <maxWeakCount>9</maxWeakCount>
      <stageThreshold>-1.9662131071090698e+00</stageThreshold>
      <weakClassifiers>
        <_>
          <internalNodes>
            0 -1 30 -4.9196695908904076e-03</internalNodes>
          <leafValues>
            -1.9298245012760162e-01 -8.2031250000000000e-01</leafValues></_>
        <_>
          <internalNodes>
            0 -1 58 -1.3073920272290707e-03</internalNodes>
          <leafValues>
            9.2698000371456146e-02 -5.8441346883773804e-01</leafValues></_>
        <_>
          <internalNodes>
            0 -1 71 2.6840931968763471e-04</internalNodes>
          <leafValues>
            1.5833382308483124e-01 -6.7877215147018433e-01</leafValues></_>
        <_>
          <internalNodes>
            0 -1 8 -2.6469025760889053e-03</internalNodes>
          <leafValues>
            -7.6866906881332397e-01 1.7282269895076752e-01</leafValues></_>
        <_>
          <internalNodes>
            0 -1 53 -2.8384383767843246e-04</internalNodes>
          <leafValues>
            1.7861130833625793e-01 -6.2457287311553955e-01</leafValues></_>
        <_>
          <internalNodes>
            0 -1 68 -1.2005115859210491e-03</internalNodes>
          <leafValues>
            -7.6980644464492798e-01 1.7901945114135742e-01</leafValues></_>
        <_>
          <internalNodes>
            0 -1 106 -5.3457268513739109e-03</internalNodes>
          <leafValues>
            5.0697106122970581e-01 -2.8204309940338135e-01</leafValues></_>
        <_>
          <internalNodes>
            0 -1 54 -1.0665336623787880e-02</internalNodes>
          <leafValues>
            3.5751792788505554e-01 -3.8632631301879883e-01</leafValues></_>
        <_>
          <internalNodes>
            0 -1 102 1.4576886314898729e-04</internalNodes>
          <leafValues>
            -4.6946266293525696e-01 3.6692085862159729e-01</leafValues></_></weakClassifiers></_>
    <!-- stage 16 -->
    <_>
      <maxWeakCount>9</maxWeakCount>
      <stageThreshold>-1.4704927206039429e+00</stageThreshold>
      <weakClassifiers>
        <_>
          <internalNodes>
            0 -1 108 -7.1509361267089844e-02</internalNodes>
          <leafValues>
            7.2727274894714355e-01 -7.8673833608627319e-01</leafValues></_>
        <_>
          <internalNodes>
            0 -1 114 -1.9078221521340311e-04</internalNodes>
          <leafValues>
            -6.6653913259506226e-01 2.6194155216217041e-02</leafValues></_>
        <_>
          <internalNodes>
            0 -1 96 -3.7525624502450228e-03</internalNodes>
          <leafValues>
            2.5899058580398560e-01 -4.9098029732704163e-01</leafValues></_>
        <_>
          <internalNodes>
            0 -1 99 1.9488469697535038e-03</internalNodes>
          <leafValues>
            -4.4074884057044983e-01 2.7023956179618835e-01</leafValues></_>
        <_>
          <internalNodes>
            0 -1 122 -4.0262038237415254e-04</internalNodes>
          <leafValues>
            -6.5146285295486450e-01 2.3095113039016724e-01</leafValues></_>
        <_>
          <internalNodes>
            0 -1 92 -3.5403217189013958e-03</internalNodes>
          <leafValues>
            2.9046767950057983e-01 -4.0517616271972656e-01</leafValues></_>
        <_>
          <internalNodes>
            0 -1 52 -2.5099841877818108e-03</internalNodes>
          <leafValues>
            2.9974672198295593e-01 -4.1082546114921570e-01</leafValues></_>
        <_>
          <internalNodes>
            0 -1 70 -7.4917282909154892e-03</internalNodes>
          <leafValues>
            -7.4093794822692871e-01 2.0804053544998169e-01</leafValues></_>
        <_>
          <internalNodes>
            0 -1 35 1.1544275097548962e-02</internalNodes>
          <leafValues>
            -4.7162082791328430e-01 2.7399608492851257e-01</leafValues></_></weakClassifiers></_>
    <!-- stage 17 -->
    <_>
      <maxWeakCount>10</maxWeakCount>
      <stageThreshold>-1.5896003246307373e+00</stageThreshold>
      <weakClassifiers>
        <_>
          <internalNodes>
            0 -1 121 9.6339192241430283e-03</internalNodes>
          <leafValues>
            -7.7777779102325439e-01 1.</leafValues></_>
        <_>
          <internalNodes>
            0 -1 75 2.8092816937714815e-03</internalNodes>
          <leafValues>
            -6.1696404218673706e-01 7.9173482954502106e-02</leafValues></_>
        <_>
          <internalNodes>
            0 -1 69 -3.4481869079172611e-05</internalNodes>
          <leafValues>
            2.8678750991821289e-01 -4.7935181856155396e-01</leafValues></_>
        <_>
          <internalNodes>
            0 -1 20 6.4936210401356220e-04</internalNodes>
          <leafValues>
            1.8806661665439606e-01 -7.2221636772155762e-01</leafValues></_>
        <_>
          <internalNodes>
            0 -1 78 -3.1644925475120544e-03</internalNodes>
          <leafValues>
            -7.8411340713500977e-01 1.5693478286266327e-01</leafValues></_>
        <_>
          <internalNodes>
            0 -1 39 3.0953255295753479e-01</internalNodes>
          <leafValues>
            -1.8223595619201660e-01 7.2015208005905151e-01</leafValues></_>
        <_>
          <internalNodes>
            0 -1 10 -1.0485485836397856e-04</internalNodes>
          <leafValues>
            -6.2653440237045288e-01 1.9813194870948792e-01</leafValues></_>
        <_>
          <internalNodes>
            0 -1 111 5.8061664458364248e-04</internalNodes>
          <leafValues>
            -1.9851550459861755e-01 6.6823548078536987e-01</leafValues></_>
        <_>
          <internalNodes>
            0 -1 125 -1.9846417126245797e-04</internalNodes>
          <leafValues>
            -6.8828874826431274e-01 2.2255951166152954e-01</leafValues></_>
        <_>
          <internalNodes>
            0 -1 89 1.8811479094438255e-04</internalNodes>
          <leafValues>
            1.4446252584457397e-01 -7.8583902120590210e-01</leafValues></_></weakClassifiers></_>
    <!-- stage 18 -->
    <_>
      <maxWeakCount>8</maxWeakCount>
      <stageThreshold>-1.6565599441528320e+00</stageThreshold>
      <weakClassifiers>
        <_>
          <internalNodes>
            0 -1 66 1.6928091645240784e-03</internalNodes>
          <leafValues>
            -8.5909092426300049e-01 -4.1085270047187805e-01</leafValues></_>
        <_>
          <internalNodes>
            0 -1 94 1.5298841753974557e-03</internalNodes>
          <leafValues>
            -5.7226741313934326e-01 1.0649580508470535e-01</leafValues></_>
        <_>
          <internalNodes>
            0 -1 86 5.8553309645503759e-04</internalNodes>
          <leafValues>
            -5.0700312852859497e-01 2.1995359659194946e-01</leafValues></_>
        <_>
          <internalNodes>
            0 -1 17 -1.7886526882648468e-02</internalNodes>
          <leafValues>
            -8.6100268363952637e-01 1.4251774549484253e-01</leafValues></_>
        <_>
          <internalNodes>
            0 -1 56 2.2607963532209396e-02</internalNodes>
          <leafValues>
            1.7529466748237610e-01 -8.1386029720306396e-01</leafValues></_>
        <_>
          <internalNodes>
            0 -1 40 -5.5301666725426912e-04</internalNodes>
          <leafValues>
            2.7189207077026367e-01 -4.5573425292968750e-01</leafValues></_>
        <_>
          <internalNodes>
            0 -1 103 7.2446878220944200e-06</internalNodes>
          <leafValues>
            -4.0510046482086182e-01 3.3559918403625488e-01</leafValues></_>
        <_>
          <internalNodes>
            0 -1 83 -4.5115366810932755e-04</internalNodes>
          <leafValues>
            -9.0456789731979370e-01 1.4606060087680817e-01</leafValues></_></weakClassifiers></_></stages>
  <features>
    <_>
      <rects>
        <_>
          0 0 27 7 -1.</_>
        <_>
          9 0 9 7 3.</_></rects>
      <tilted>0</tilted></_>
    <_>
      <rects>
        <_>
          0 1 6 3 -1.</_>
        <_>
          0 2 6 1 3.</_></rects>
      <tilted>0</tilted></_>
    <_>
      <rects>
        <_>
          0 2 30 3 -1.</_>
        <_>
          10 2 10 3 3.</_></rects>
      <tilted>0</tilted></_>
    <_>
      <rects>
        <_>
          0 8 18 1 -1.</_>
        <_>
          6 8 6 1 3.</_></rects>
      <tilted>0</tilted></_>
    <_>
      <rects>
        <_>
          0 9 3 3 -1.</_>
        <_>
          0 10 3 1 3.</_></rects>
      <tilted>0</tilted></_>
    <_>
      <rects>
        <_>
          0 9 24 2 -1.</_>
        <_>
          0 9 12 1 2.</_>
        <_>
          12 10 12 1 2.</_></rects>
      <tilted>0</tilted></_>
    <_>
      <rects>
        <_>
          0 18 30 10 -1.</_>
        <_>
          10 18 10 10 3.</_></rects>
      <tilted>0</tilted></_>
    <_>
      <rects>
        <_>
          0 19 4 3 -1.</_>
        <_>
          0 20 4 1 3.</_></rects>
      <tilted>0</tilted></_>
    <_>
      <rects>
        <_>
          0 21 2 6 -1.</_>
        <_>
          0 24 2 3 2.</_></rects>
      <tilted>0</tilted></_>
    <_>
      <rects>
        <_>
          0 23 2 4 -1.</_>
        <_>
          0 23 1 2 2.</_>
        <_>
          1 25 1 2 2.</_></rects>
      <tilted>0</tilted></_>
    <_>
      <rects>
        <_>
          0 25 1 2 -1.</_>
        <_>
          0 26 1 1 2.</_></rects>
      <tilted>0</tilted></_>
    <_>
      <rects>
        <_>
          0 26 32 6 -1.</_>
        <_>
          0 29 32 3 2.</_></rects>
      <tilted>0</tilted></_>
    <_>
      <rects>
        <_>
          1 0 6 3 -1.</_>
        <_>
          1 1 6 1 3.</_></rects>
      <tilted>0</tilted></_>
    <_>
      <rects>
        <_>
          1 3 14 4 -1.</_>
        <_>
          8 3 7 4 2.</_></rects>
      <tilted>0</tilted></_>
    <_>
      <rects>
        <_>
          1 5 8 22 -1.</_>
        <_>
          1 5 4 11 2.</_>
        <_>
          5 16 4 11 2.</_></rects>
      <tilted>0</tilted></_>
    <_>
      <rects>
        <_>
          1 8 9 22 -1.</_>
        <_>
          4 8 3 22 3.</_></rects>
      <tilted>0</tilted></_>
    <_>
      <rects>
        <_>
          1 8 8 10 -1.</_>
        <_>
          5 8 4 10 2.</_></rects>
      <tilted>0</tilted></_>
    <_>
      <rects>
        <_>
          1 9 28 6 -1.</_>
        <_>
          1 9 14 3 2.</_>
        <_>
          15 12 14 3 2.</_></rects>
      <tilted>0</tilted></_>
    <_>
      <rects>
        <_>
          1 11 8 3 -1.</_>
        <_>
          1 12 8 1 3.</_></rects>
      <tilted>0</tilted></_>
    <_>
      <rects>
        <_>
          3 12 20 6 -1.</_>
        <_>
          3 14 20 2 3.</_></rects>
      <tilted>0</tilted></_>
    <_>
      <rects>
        <_>
          3 19 8 2 -1.</_>
        <_>
          3 20 8 1 2.</_></rects>
      <tilted>0</tilted></_>
    <_>
      <rects>
        <_>
          3 24 15 2 -1.</_>
        <_>
          3 25 15 1 2.</_></rects>
      <tilted>0</tilted></_>
    <_>
      <rects>
        <_>
          4 2 1 2 -1.</_>
        <_>
          4 3 1 1 2.</_></rects>
      <tilted>0</tilted></_>
    <_>
      <rects>
        <_>
          4 6 6 19 -1.</_>
        <_>
          6 6 2 19 3.</_></rects>
      <tilted>0</tilted></_>
    <_>
      <rects>
        <_>
          4 6 6 24 -1.</_>
        <_>
          6 6 2 24 3.</_></rects>
      <tilted>0</tilted></_>
    <_>
      <rects>
        <_>
          4 7 6 20 -1.</_>
        <_>
          6 7 2 20 3.</_></rects>
      <tilted>0</tilted></_>
    <_>
      <rects>
        <_>
          4 11 6 9 -1.</_>
        <_>
          6 11 2 9 3.</_></rects>
      <tilted>0</tilted></_>
    <_>
      <rects>
        <_>
          4 12 21 15 -1.</_>
        <_>
          4 17 21 5 3.</_></rects>
      <tilted>0</tilted></_>
    <_>
      <rects>
        <_>
          4 18 10 12 -1.</_>
        <_>
          9 18 5 12 2.</_></rects>
      <tilted>0</tilted></_>
    <_>
      <rects>
        <_>
          5 11 23 21 -1.</_>
        <_>
          5 18 23 7 3.</_></rects>
      <tilted>0</tilted></_>
    <_>
      <rects>
        <_>
          5 12 3 7 -1.</_>
        <_>
          6 12 1 7 3.</_></rects>
      <tilted>0</tilted></_>
    <_>
      <rects>
        <_>
          5 14 4 18 -1.</_>
        <_>
          5 14 2 9 2.</_>
        <_>
          7 23 2 9 2.</_></rects>
      <tilted>0</tilted></_>
    <_>
      <rects>
        <_>
          5 21 20 6 -1.</_>
        <_>
          5 21 10 3 2.</_>
        <_>
          15 24 10 3 2.</_></rects>
      <tilted>0</tilted></_>
    <_>
      <rects>
        <_>
          5 24 21 5 -1.</_>
        <_>
          12 24 7 5 3.</_></rects>
      <tilted>0</tilted></_>
    <_>
      <rects>
        <_>
          5 24 21 8 -1.</_>
        <_>
          5 28 21 4 2.</_></rects>
      <tilted>0</tilted></_>
    <_>
      <rects>
        <_>
          6 0 10 10 -1.</_>
        <_>
          6 0 5 5 2.</_>
        <_>
          11 5 5 5 2.</_></rects>
      <tilted>0</tilted></_>
    <_>
      <rects>
        <_>
          6 0 19 8 -1.</_>
        <_>
          6 4 19 4 2.</_></rects>
      <tilted>0</tilted></_>
    <_>
      <rects>
        <_>
          6 1 17 12 -1.</_>
        <_>
          6 5 17 4 3.</_></rects>
      <tilted>0</tilted></_>
    <_>
      <rects>
        <_>
          6 4 6 3 -1.</_>
        <_>
          8 4 2 3 3.</_></rects>
      <tilted>0</tilted></_>
    <_>
      <rects>
        <_>
          6 11 17 21 -1.</_>
        <_>
          6 18 17 7 3.</_></rects>
      <tilted>0</tilted></_>
    <_>
      <rects>
        <_>
          6 12 6 4 -1.</_>
        <_>
          6 12 3 2 2.</_>
        <_>
          9 14 3 2 2.</_></rects>
      <tilted>0</tilted></_>
    <_>
      <rects>
        <_>
          6 13 20 12 -1.</_>
        <_>
          6 17 20 4 3.</_></rects>
      <tilted>0</tilted></_>
    <_>
      <rects>
        <_>
          6 14 16 6 -1.</_>
        <_>
          6 17 16 3 2.</_></rects>
      <tilted>0</tilted></_>
    <_>
      <rects>
        <_>
          7 0 14 6 -1.</_>
        <_>
          7 3 14 3 2.</_></rects>
      <tilted>0</tilted></_>
    <_>
      <rects>
        <_>
          7 6 3 14 -1.</_>
        <_>
          7 13 3 7 2.</_></rects>
      <tilted>0</tilted></_>
    <_>
      <rects>
        <_>
          7 6 15 11 -1.</_>
        <_>
          12 6 5 11 3.</_></rects>
      <tilted>0</tilted></_>
    <_>
      <rects>
        <_>
          7 9 2 12 -1.</_>
        <_>
          8 9 1 12 2.</_></rects>
      <tilted>0</tilted></_>
    <_>
      <rects>
        <_>
          8 0 18 12 -1.</_>
        <_>
          8 4 18 4 3.</_></rects>
      <tilted>0</tilted></_>
    <_>
      <rects>
        <_>
          8 2 8 6 -1.</_>
        <_>
          8 2 4 3 2.</_>
        <_>
          12 5 4 3 2.</_></rects>
      <tilted>0</tilted></_>
    <_>
      <rects>
        <_>
          8 8 4 8 -1.</_>
        <_>
          8 8 2 4 2.</_>
        <_>
          10 12 2 4 2.</_></rects>
      <tilted>0</tilted></_>
    <_>
      <rects>
        <_>
          8 9 13 6 -1.</_>
        <_>
          8 11 13 2 3.</_></rects>
      <tilted>0</tilted></_>
    <_>
      <rects>
        <_>
          8 12 5 18 -1.</_>
        <_>
          8 18 5 6 3.</_></rects>
      <tilted>0</tilted></_>
    <_>
      <rects>
        <_>
          8 19 7 4 -1.</_>
        <_>
          8 21 7 2 2.</_></rects>
      <tilted>0</tilted></_>
    <_>
      <rects>
        <_>
          8 20 5 4 -1.</_>
        <_>
          8 22 5 2 2.</_></rects>
      <tilted>0</tilted></_>
    <_>
      <rects>
        <_>
          9 0 4 12 -1.</_>
        <_>
          9 4 4 4 3.</_></rects>
      <tilted>0</tilted></_>
    <_>
      <rects>
        <_>
          9 2 11 15 -1.</_>
        <_>
          9 7 11 5 3.</_></rects>
      <tilted>0</tilted></_>
    <_>
      <rects>
        <_>
          9 4 14 14 -1.</_>
        <_>
          9 4 7 7 2.</_>
        <_>
          16 11 7 7 2.</_></rects>
      <tilted>0</tilted></_>
    <_>
      <rects>
        <_>
          9 11 11 9 -1.</_>
        <_>
          9 14 11 3 3.</_></rects>
      <tilted>0</tilted></_>
    <_>
      <rects>
        <_>
          9 12 6 4 -1.</_>
        <_>
          11 12 2 4 3.</_></rects>
      <tilted>0</tilted></_>
    <_>
      <rects>
        <_>
          9 14 17 9 -1.</_>
        <_>
          9 17 17 3 3.</_></rects>
      <tilted>0</tilted></_>
    <_>
      <rects>
        <_>
          9 19 3 4 -1.</_>
        <_>
          9 21 3 2 2.</_></rects>
      <tilted>0</tilted></_>
    <_>
      <rects>
        <_>
          10 0 9 9 -1.</_>
        <_>
          10 3 9 3 3.</_></rects>
      <tilted>0</tilted></_>
    <_>
      <rects>
        <_>
          10 2 10 15 -1.</_>
        <_>
          10 7 10 5 3.</_></rects>
      <tilted>0</tilted></_>
    <_>
      <rects>
        <_>
          10 9 2 1 -1.</_>
        <_>
          11 9 1 1 2.</_></rects>
      <tilted>0</tilted></_>
    <_>
      <rects>
        <_>
          10 11 5 9 -1.</_>
        <_>
          10 14 5 3 3.</_></rects>
      <tilted>0</tilted></_>
    <_>
      <rects>
        <_>
          10 12 16 6 -1.</_>
        <_>
          10 14 16 2 3.</_></rects>
      <tilted>0</tilted></_>
    <_>
      <rects>
        <_>
          10 15 3 2 -1.</_>
        <_>
          10 16 3 1 2.</_></rects>
      <tilted>0</tilted></_>
    <_>
      <rects>
        <_>
          10 16 2 6 -1.</_>
        <_>
          10 18 2 2 3.</_></rects>
      <tilted>0</tilted></_>
    <_>
      <rects>
        <_>
          10 21 3 6 -1.</_>
        <_>
          10 23 3 2 3.</_></rects>
      <tilted>0</tilted></_>
    <_>
      <rects>
        <_>
          11 18 4 5 -1.</_>
        <_>
          13 18 2 5 2.</_></rects>
      <tilted>0</tilted></_>
    <_>
      <rects>
        <_>
          11 18 5 6 -1.</_>
        <_>
          11 21 5 3 2.</_></rects>
      <tilted>0</tilted></_>
    <_>
      <rects>
        <_>
          11 19 2 6 -1.</_>
        <_>
          11 19 1 3 2.</_>
        <_>
          12 22 1 3 2.</_></rects>
      <tilted>0</tilted></_>
    <_>
      <rects>
        <_>
          11 19 2 8 -1.</_>
        <_>
          11 23 2 4 2.</_></rects>
      <tilted>0</tilted></_>
    <_>
      <rects>
        <_>
          11 21 2 3 -1.</_>
        <_>
          12 21 1 3 2.</_></rects>
      <tilted>0</tilted></_>
    <_>
      <rects>
        <_>
          12 9 1 6 -1.</_>
        <_>
          12 11 1 2 3.</_></rects>
      <tilted>0</tilted></_>
    <_>
      <rects>
        <_>
          12 10 4 11 -1.</_>
        <_>
          14 10 2 11 2.</_></rects>
      <tilted>0</tilted></_>
    <_>
      <rects>
        <_>
          12 11 3 3 -1.</_>
        <_>
          13 11 1 3 3.</_></rects>
      <tilted>0</tilted></_>
    <_>
      <rects>
        <_>
          12 12 9 5 -1.</_>
        <_>
          15 12 3 5 3.</_></rects>
      <tilted>0</tilted></_>
    <_>
      <rects>
        <_>
          12 19 2 6 -1.</_>
        <_>
          12 22 2 3 2.</_></rects>
      <tilted>0</tilted></_>
    <_>
      <rects>
        <_>
          13 4 18 2 -1.</_>
        <_>
          22 4 9 2 2.</_></rects>
      <tilted>0</tilted></_>
    <_>
      <rects>
        <_>
          13 9 14 2 -1.</_>
        <_>
          20 9 7 2 2.</_></rects>
      <tilted>0</tilted></_>
    <_>
      <rects>
        <_>
          13 21 4 6 -1.</_>
        <_>
          13 21 2 3 2.</_>
        <_>
          15 24 2 3 2.</_></rects>
      <tilted>0</tilted></_>
    <_>
      <rects>
        <_>
          14 0 18 10 -1.</_>
        <_>
          23 0 9 10 2.</_></rects>
      <tilted>0</tilted></_>
    <_>
      <rects>
        <_>
          14 6 3 2 -1.</_>
        <_>
          15 6 1 2 3.</_></rects>
      <tilted>0</tilted></_>
    <_>
      <rects>
        <_>
          14 14 9 1 -1.</_>
        <_>
          17 14 3 1 3.</_></rects>
      <tilted>0</tilted></_>
    <_>
      <rects>
        <_>
          14 14 3 18 -1.</_>
        <_>
          14 23 3 9 2.</_></rects>
      <tilted>0</tilted></_>
    <_>
      <rects>
        <_>
          14 17 2 6 -1.</_>
        <_>
          14 19 2 2 3.</_></rects>
      <tilted>0</tilted></_>
    <_>
      <rects>
        <_>
          14 24 3 4 -1.</_>
        <_>
          14 26 3 2 2.</_></rects>
      <tilted>0</tilted></_>
    <_>
      <rects>
        <_>
          14 27 2 2 -1.</_>
        <_>
          15 27 1 2 2.</_></rects>
      <tilted>0</tilted></_>
    <_>
      <rects>
        <_>
          15 5 3 1 -1.</_>
        <_>
          16 5 1 1 3.</_></rects>
      <tilted>0</tilted></_>
    <_>
      <rects>
        <_>
          15 7 15 6 -1.</_>
        <_>
          20 7 5 6 3.</_></rects>
      <tilted>0</tilted></_>
    <_>
      <rects>
        <_>
          15 19 2 4 -1.</_>
        <_>
          15 19 1 2 2.</_>
        <_>
          16 21 1 2 2.</_></rects>
      <tilted>0</tilted></_>
    <_>
      <rects>
        <_>
          16 1 7 6 -1.</_>
        <_>
          16 4 7 3 2.</_></rects>
      <tilted>0</tilted></_>
    <_>
      <rects>
        <_>
          16 5 16 26 -1.</_>
        <_>
          24 5 8 26 2.</_></rects>
      <tilted>0</tilted></_>
    <_>
      <rects>
        <_>
          16 12 2 18 -1.</_>
        <_>
          16 12 1 9 2.</_>
        <_>
          17 21 1 9 2.</_></rects>
      <tilted>0</tilted></_>
    <_>
      <rects>
        <_>
          16 17 2 14 -1.</_>
        <_>
          16 17 1 7 2.</_>
        <_>
          17 24 1 7 2.</_></rects>
      <tilted>0</tilted></_>
    <_>
      <rects>
        <_>
          16 18 4 8 -1.</_>
        <_>
          16 22 4 4 2.</_></rects>
      <tilted>0</tilted></_>
    <_>
      <rects>
        <_>
          16 19 2 10 -1.</_>
        <_>
          16 19 1 5 2.</_>
        <_>
          17 24 1 5 2.</_></rects>
      <tilted>0</tilted></_>
    <_>
      <rects>
        <_>
          16 20 2 10 -1.</_>
        <_>
          16 20 1 5 2.</_>
        <_>
          17 25 1 5 2.</_></rects>
      <tilted>0</tilted></_>
    <_>
      <rects>
        <_>
          16 20 8 9 -1.</_>
        <_>
          16 23 8 3 3.</_></rects>
      <tilted>0</tilted></_>
    <_>
      <rects>
        <_>
          17 0 10 12 -1.</_>
        <_>
          17 0 5 6 2.</_>
        <_>
          22 6 5 6 2.</_></rects>
      <tilted>0</tilted></_>
    <_>
      <rects>
        <_>
          17 17 1 6 -1.</_>
        <_>
          17 19 1 2 3.</_></rects>
      <tilted>0</tilted></_>
    <_>
      <rects>
        <_>
          18 14 2 6 -1.</_>
        <_>
          18 14 1 3 2.</_>
        <_>
          19 17 1 3 2.</_></rects>
      <tilted>0</tilted></_>
    <_>
      <rects>
        <_>
          18 18 3 1 -1.</_>
        <_>
          19 18 1 1 3.</_></rects>
      <tilted>0</tilted></_>
    <_>
      <rects>
        <_>
          18 18 10 10 -1.</_>
        <_>
          23 18 5 10 2.</_></rects>
      <tilted>0</tilted></_>
    <_>
      <rects>
        <_>
          18 26 6 4 -1.</_>
        <_>
          21 26 3 4 2.</_></rects>
      <tilted>0</tilted></_>
    <_>
      <rects>
        <_>
          18 27 9 3 -1.</_>
        <_>
          21 27 3 3 3.</_></rects>
      <tilted>0</tilted></_>
    <_>
      <rects>
        <_>
          19 4 10 27 -1.</_>
        <_>
          19 13 10 9 3.</_></rects>
      <tilted>0</tilted></_>
    <_>
      <rects>
        <_>
          19 5 12 7 -1.</_>
        <_>
          23 5 4 7 3.</_></rects>
      <tilted>0</tilted></_>
    <_>
      <rects>
        <_>
          19 12 1 8 -1.</_>
        <_>
          19 16 1 4 2.</_></rects>
      <tilted>0</tilted></_>
    <_>
      <rects>
        <_>
          19 18 5 6 -1.</_>
        <_>
          19 21 5 3 2.</_></rects>
      <tilted>0</tilted></_>
    <_>
      <rects>
        <_>
          19 23 1 3 -1.</_>
        <_>
          19 24 1 1 3.</_></rects>
      <tilted>0</tilted></_>
    <_>
      <rects>
        <_>
          20 0 8 27 -1.</_>
        <_>
          24 0 4 27 2.</_></rects>
      <tilted>0</tilted></_>
    <_>
      <rects>
        <_>
          20 10 6 17 -1.</_>
        <_>
          22 10 2 17 3.</_></rects>
      <tilted>0</tilted></_>
    <_>
      <rects>
        <_>
          20 18 2 6 -1.</_>
        <_>
          21 18 1 6 2.</_></rects>
      <tilted>0</tilted></_>
    <_>
      <rects>
        <_>
          21 7 9 19 -1.</_>
        <_>
          24 7 3 19 3.</_></rects>
      <tilted>0</tilted></_>
    <_>
      <rects>
        <_>
          21 9 6 18 -1.</_>
        <_>
          24 9 3 18 2.</_></rects>
      <tilted>0</tilted></_>
    <_>
      <rects>
        <_>
          21 14 3 4 -1.</_>
        <_>
          21 16 3 2 2.</_></rects>
      <tilted>0</tilted></_>
    <_>
      <rects>
        <_>
          21 15 2 2 -1.</_>
        <_>
          21 16 2 1 2.</_></rects>
      <tilted>0</tilted></_>
    <_>
      <rects>
        <_>
          21 18 6 3 -1.</_>
        <_>
          23 18 2 3 3.</_></rects>
      <tilted>0</tilted></_>
    <_>
      <rects>
        <_>
          22 17 6 5 -1.</_>
        <_>
          25 17 3 5 2.</_></rects>
      <tilted>0</tilted></_>
    <_>
      <rects>
        <_>
          26 8 2 10 -1.</_>
        <_>
          27 8 1 10 2.</_></rects>
      <tilted>0</tilted></_>
    <_>
      <rects>
        <_>
          27 26 3 2 -1.</_>
        <_>
          27 27 3 1 2.</_></rects>
      <tilted>0</tilted></_>
    <_>
      <rects>
        <_>
          29 1 1 3 -1.</_>
        <_>
          29 2 1 1 3.</_></rects>
      <tilted>0</tilted></_>
    <_>
      <rects>
        <_>
          29 1 2 2 -1.</_>
        <_>
          29 1 1 1 2.</_>
        <_>
          30 2 1 1 2.</_></rects>
      <tilted>0</tilted></_>
    <_>
      <rects>
        <_>
          29 7 3 3 -1.</_>
        <_>
          29 8 3 1 3.</_></rects>
      <tilted>0</tilted></_>
    <_>
      <rects>
        <_>
          29 9 2 3 -1.</_>
        <_>
          29 10 2 1 3.</_></rects>
      <tilted>0</tilted></_>
    <_>
      <rects>
        <_>
          30 11 2 8 -1.</_>
        <_>
          30 15 2 4 2.</_></rects>
      <tilted>0</tilted></_>
    <_>
      <rects>
        <_>
          30 13 2 9 -1.</_>
        <_>
          30 16 2 3 3.</_></rects>
      <tilted>0</tilted></_>
    <_>
      <rects>
        <_>
          31 15 1 6 -1.</_>
        <_>
          31 17 1 2 3.</_></rects>
      <tilted>0</tilted></_></features></cascade>
</opencv_storage>
